{'W10': [[-0.0800787398129904, 0.1612662386945918, -0.0816831016448804, 0.08039933447455419, 0.03129136426565927, -0.023599379949248045, 0.10906821399949188, 0.16275478229620735, 0.15869270104427718, 0.17798772592763099, 0.09913173721356011], [0.029577572558738042, 0.011014222686294557, -0.043298690975232805, 0.0020659228912501748, 0.06524415345151188, 0.0990373054103323, 0.0950470895597868, -0.14485269970027803, 0.05516326734941828, 0.13741191212671391, 0.10421605369363622], [0.14431093432720843, -0.07401837984056621, 0.12209641938054658, 0.13644328343527454, -0.012395967488482106, -0.15947440396943693, -0.02607632500354301, 0.12516294302119074, 0.15806538843861975, 0.17766294462947055, 0.05539329411922312], [-0.17193212504161742, 0.06563703862800692, 0.0982176595461719, -0.01859495271637469, -0.10096893530241623, 0.0950878186448087, -0.07691696574911584, 0.03724250337621058, 0.1339656567452827, -0.11905140388985781, 0.022869591456005974], [0.14491491381162047, 0.08028808425842564, -0.09520291087265388, -0.13787350913592072, -0.15182187616796816, 0.1443298906082965, 0.05472822702829928, 0.019032744058351148, -0.055873444524435975, -0.05165956010534578, 0.05798599471965057], [0.14260718936101172, -0.08011518005281429, -0.0741736734368918, -0.17763463615008102, -0.06506339415860651, -0.16151014504293046, -0.18087078656329406, -0.07149667519337967, -0.1276865507585217, -0.16773473532947641, 0.15505982817904618], [0.03163092723817771, 0.04733111343632381, -0.043209563441220934, -0.08687100719949609, 0.029172335466377628, 0.16577799187195785, 0.1732118100639218, -0.11914226004954875, 0.03031729336816036, 0.11192666520061935, -0.04059982790838811], [0.09296330787255119, -0.1758118049179622, -0.16487059715341806, 0.046832774266288985, 0.012960531997260523, -0.024487806389835002, -0.007656327553152322, -0.11503231553934525, 0.06451400466636781, 0.16143118971985068, -0.005137910444382381]], 'W21': [[-0.16614381845284976, -0.06406778162599056, 0.08661828428943935, 0.15067069233786598, -0.03700692596151259, 0.09684147845027909, 0.03484116736471537, -0.08562822397809379, 0.013951069587400559], [0.13982257005839344, 0.09765547476117248, 0.06954744886660746, -0.06955396930034137, 0.1140468218243575, 0.08091033825039827, 0.0034789620078439836, 0.11624983186568039, -0.0798887728582403], [0.06075914971700045, -0.039041542972691794, 0.09287397052167153, 0.09356020519718225, 0.14281565989519812, -0.18202625641554124, -0.14753751483388516, -0.048678896012086165, 0.16159719643654658], [-0.1096366006542262, 0.07601291153509032, 0.12524943004972944, 0.06663078973938504, 0.10455441634679749, -0.0740659235886326, 0.0065139594513610784, -0.12694089156344732, -0.18126049985252568], [-0.08743075057965335, 0.04282462739154608, -0.14830503347414245, 0.1068554146532879, 0.16889413695563066, -0.11892934499743649, 0.08340796347583752, -0.11150559886007104, -0.16427934779638545]], 'W32': [[0.1321445592075431, 0.1282576312888896, -0.08152208379354184, -0.1461441916015601, -0.14219326109588046, -0.16913862438480481], [0.06928414860500595, -0.03708347854734391, 0.13601929303032798, -0.1763292965625971, 0.04080574308990023, -0.09040381851263683], [-0.04568716815014974, 0.007714707167472016, 0.06948188048507067, 0.07953403479128837, -0.08224568514248852, -0.06752117391673497], [0.09996975734903704, 0.05748646392108147, 0.019429052478062113, -0.10958684491965673, -0.11441505792700664, -0.1364647107402299], [0.11794569273136211, 0.1649255392121795, -0.12780078616019266, 0.00315812953666038, -0.10365395474709653, 0.1050174207649121], [-0.1630109298548738, -0.01014409202717249, 0.06097481241601286, -0.12855869872038667, 0.11023295402781386, -0.18146233058157654]], 'W43': [[-0.0052660895582846475, 0.06866127259914223, -0.019367377439898435, 0.04211782207629649, -0.04330243783130435, 0.13184197829099975, 0.05371229855383419], [-0.1652544643280622, -0.1030648642763642, 0.06791625380184257, -0.15875876096961578, -0.11087350256484561, 0.14064533281292085, -0.03622119895754925], [0.15923394032306978, -0.1503814585530644, 0.03320792481375623, 0.06859218400219766, 0.06344711394338892, 0.012666728656127422, -0.1438137661463916], [-0.08735097483878851, -0.038293751380850366, 0.17920397339788738, 0.18047345482294902, -0.06909348906113846, -0.1539254549491258, -0.002999975681945983], [0.0241179536263354, -0.1540868149803714, -0.07402912689089286, -0.18914791139509887, -0.08807182528142474, -0.02662170110841038, 0.11112468231473471], [-0.049611461365406104, -0.11057469368179827, -0.16105925581637492, -0.17640944426889923, 0.12078176892265786, 0.14693873033522017, 0.06557428290651074], [0.0683657831421917, -0.011345713428391838, -0.13909935408587956, -0.05221341793391651, -0.031776397014195615, 0.14455033927452346, -0.12269575285945174], [-0.08409271335136913, -0.19047725528144224, -0.08846385977563094, -0.10912070061836752, 0.06518691858970052, -0.03891239617782101, 0.07402346086808546], [-0.1196541340855224, 0.17031377431743164, 0.009604310633989477, -0.04237754093658529, 0.022500440057026044, 0.007491536574770341, -0.11501948191669656]], 'W54': [[0.09993530187830325, 0.17691933937281212, 0.1616533705744432, 0.08922247265907074, 0.05906284936799165, 0.1240155335683478, 0.1483247444377621, 0.07027800615844544, 0.19016105626656918, 0.3984046433430211], [-0.12307457221827482, -0.23533218758221755, -0.10326925964388001, -0.19227194952640392, -0.07998838022532449, -0.24269075805423876, -0.2565237278951789, -0.039046721758021555, -0.06792478837971062, -0.3089520396822628]]}