{'W10': [[-0.06461605593641587, -0.19146595146597226, 0.0494902559103472, -0.17044901601763066, -0.19599522560724555, 0.10944825113655077, -0.20854274245759477, 0.16085266148370614, 0.23684475342777742, 0.07739861647778047, 0.08381355804170636], [0.06375896170082267, -0.0858231649138573, -0.07869372369280216, 0.21031766223043516, -0.010812334523430363, -0.0740686102316799, -0.03997049874172086, -0.15570698802647834, 0.22534756045272372, -0.23068871421248424, -0.12084155825831605], [-0.1599458386997129, 0.20053665908592794, 0.17760791453085042, -0.11543281754396352, -0.026623716650709374, -0.038664781947232774, -0.018085304669662138, 0.22813952564046414, 0.08883482916456213, 0.04340479637646422, -0.1685393177863588], [-0.09541600424613865, -0.008327285165335216, -0.14198432986585852, 0.0989262243903619, -0.20424853467521864, 0.20458854538977522, -0.05002178553128565, 0.19215570885719982, -0.1889648444461992, -0.11822045979888599, 0.044857607162819446], [-0.05805081388792193, 0.05710691044376925, -0.01743406219423504, 0.12916369913673742, -0.017279541666485154, 0.0311289445496251, 0.1860007986117482, -0.20863268769965532, -0.050845723668448445, 0.07510506989302622, -0.18467949253064941], [0.11248781570649706, 0.10337383815150698, 0.07401353390972379, -0.031113161826703036, -0.12635716839468988, -0.010617649092017246, 0.003396071837689867, 0.09229012099098965, 0.22487775308751531, 0.05704989551516064, -0.18882646251327237], [0.028826767327492484, -0.1095029445046023, 0.13449990100885068, 0.07497916087047056, -0.027708819539765096, -0.05371538487682223, -0.010853179530878033, -0.22392075288052746, 0.09757996742290925, -0.12299877569380288, 0.05834187694183391], [-0.0775414978832971, -0.2340832286367399, -0.007309881909525229, 0.16693485320644685, -0.15581820341470107, 0.08242382017389573, -0.16151714576861984, 0.024847264610109103, 0.02747208058480756, -0.16648261249565902, 0.19468340912456036], [0.05799151606773859, 0.09990236264238497, -0.17308405076564526, 0.19537974824668677, 0.16362789603098055, 0.1765367254648556, -0.06188507810653416, 0.11523489263194868, 0.01086496996562517, 0.16971059659304796, 0.036278943719508155]], 'W21': [[0.21510115094375318, 0.19696040686182226, -0.07174632881814767, -0.09954448324713099, -0.09572170532729907, 0.036393092854773934, -0.15919593418946434, 0.000995773340235187, -0.2053285926390404, 0.13384281451886784], [0.1954003698608678, 0.17683376379327442, 0.03368367534154774, -0.03384165332230307, 0.07644668886667584, -0.14068443557883265, -0.016213315514177665, -0.17494985331770735, -0.0801101157628708, -0.23226909767755713], [0.11912660399057225, -0.004116662335292235, 0.17174043631625927, 0.12843373146272763, 0.17316589875031635, -0.232864843701349, -0.14315305792928468, 0.09568784190311394, 0.1686022166199257, 0.18810815708670772], [-0.2276609073240335, -0.01644841029314261, -0.1822424730837071, -0.1801047772203203, -0.04647921263310389, 0.13110159943365052, 0.2037925814437183, -0.1512122741943219, 0.08386886069578675, 0.03399467588656519], [-0.13463137593520882, 0.17892413691670012, 0.10248624329568394, -0.059852361856473364, -0.04911900774088965, 0.13558058907792522, 0.24541676211091473, 0.1953590357601329, 0.1284293879835429, 0.09287578769636724], [-0.10703520108451246, 0.08404269255002836, -0.1172226445321576, 0.10529807960071941, -0.1366929064284823, -0.14629483374008115, -0.20487134462499668, -0.15303484668212555, 0.037383130820868596, 0.07804246155430172], [0.04459053733950747, 0.017774046427327914, 0.21898411108025842, -0.23216721887562608, 0.12490613621244691, -0.179806784026629, 0.009282304777815827, 0.15481666266121516, 0.12456689015263667, 0.04678532059418521], [0.20264029244360696, -0.0004839028070464366, -0.18149573476670158, 0.04621419411909859, -0.03684937555621374, 0.23679388140837798, 0.031586258398359594, -0.18892500847768662, 0.1845377233441767, -0.2026406698057617], [0.11231495917702142, 0.1592664818919653, -0.1915475898545087, 0.00832516348075543, 0.019263431667759984, 0.0026178547947375225, 0.1529219177521196, 0.12802128455226172, 0.11462097547631502, 0.11028125912821722]], 'W32': [[0.027582608263310448, 0.08948436776195214, 0.1637396211759597, 0.0607113947355325, 0.2598710923138437, -0.018725986725160963, 0.06981260052361819, 0.13098802971696355, -0.03630929987457861, 0.2292104191006563], [0.08318954329002623, -0.10344893553326315, -0.1688348980157665, 0.04007116966108366, -0.057376053537781434, 0.05757322331638576, -0.2206285043785931, -0.16320556741980416, -0.20919357672901337, -0.19656317678126123]]}