{'W10': [[0.034605693694201856, -0.12265727164186646, -0.24271275182457047, 0.08703404640217507, 0.25150764701497613, -0.21296098555141896, -0.1909364069231712, -0.0054876060756780184, 0.06461938791522137, 0.048664447951937216, -0.22950571313630383], [0.07109517964895735, -0.1645393119552142, -0.05815778668090937, -0.060679531331931595, 0.05364876767254705, 0.21530068213118797, -0.06545922193368858, 0.15002541300363917, 0.19072381966819463, -0.1421639453944944, -0.01583536028904809], [-0.10595084224750619, -0.06845986208952144, 0.001984417140364593, 0.15790454812359248, 0.0339023307491789, 0.21364884127836126, 0.05487534125211137, 0.2318109217360477, -0.01001086139326657, 0.12203307405531662, -0.08325119413983728], [0.04724316113524598, 0.09628630500753867, -0.08595818103056678, 0.16884710600531133, 0.1715987435803577, 0.12467236745879268, -0.13725467329516403, 0.22717548479119268, 0.18748706319546618, 0.10039833050085195, -0.24582923358465736], [-0.13485469847455267, 0.19076762688654741, -0.02644978323662533, -0.15225823517169454, -0.160777116743296, -0.10788022336090228, 0.16548180936054102, -0.0882749580507615, 0.16899633423924024, 0.15135585233372553, 0.06721891959094824], [0.041403955538238994, 0.207193241763952, -0.07744708315089348, 0.0884375687066377, -0.02398545656123845, -0.14282699944489577, -0.008546034913444078, -0.15299970634017937, -0.039969713730199946, 0.00959659368956411, -0.16828852497982008], [-0.14730536059547292, 0.1693288548314335, -0.25034519675866923, 0.05008232827540587, 0.19664139436314582, 0.07937759683770075, 0.24525800538292983, -0.049599271643093544, 0.14951154339360465, 0.17024481083408352, 0.10613152947668096], [0.10676729714475203, 0.08612819042574073, -0.088355693350472, 0.1945072426682585, 0.004309975037534369, -0.2339840773035835, -0.061311298375735686, -0.10792986833502727, 0.1843777709501617, 0.009928029241301588, -0.16288735905804724]], 'W21': [[0.029512541532005308, 0.03729710529141289, -0.18157217858886787, 0.18780079113579065, 0.18203143100547522, 0.12804959736290916, -0.23150679974635177, 0.1959330540734585, 0.22623322236789759], [0.1224506981894236, 0.03663359814214793, 0.24516014598048202, 0.1642952350643858, -0.15553728254887567, 0.1974212046531987, -0.04591233134417398, 0.16865744210940595, 0.0025321828478042847], [0.15270346497700105, 0.2232566713309334, 0.21629730606472294, 0.17578184644155867, -0.15473175012096282, -0.14419961477757012, 0.07973891604512506, -0.09491386482062855, -0.05632274115925671], [0.1871247681298408, 0.21011047734910965, -0.021643341373131498, 0.08976065284293798, 0.024654653894260498, -0.25384521779675634, 0.1070673897199768, -0.09317738982713035, 0.07136900416520567], [-0.19256429497194918, -0.2424705450962993, 0.21899398163406603, -0.0009838846440319495, 0.07959441889646962, 0.0035566143695683595, -0.09028868025031198, -0.22099115868673513, -0.14169474700065546]], 'W32': [[0.18452179413687286, 0.24353411342956746, 3.4859807409239456e-05, 0.20474733119172525, -0.18173125539307625, 0.1469809136111275], [0.05178674311121198, 0.015448713577301789, 0.16846827604066536, 0.16664640592710067, 0.114553495762414, 0.06576109107176], [-0.006901630912993657, 0.013083046191512175, 0.028157766705828192, -0.1873802589231724, -0.1170896119698459, 0.2416707533252924], [0.01585301240943665, 0.1959331509942087, -0.18429989044217787, -0.12953598026543126, 0.048661015367267406, -0.12999023075926386], [-0.051426380035900054, -0.0014455094640116568, 0.1901319915807954, -0.05630606500133928, -0.2233152872695562, -0.07848568322406638], [0.026163081364793755, -0.2514373453451833, 0.17870896694900212, -0.19782327151788456, -0.013771058638942997, -0.019783012460179147], [0.19984168767315127, 0.1889929679627005, -0.17825007470785498, 0.233171392821681, 0.07645852045200585, -0.003659513065723915], [0.22154309027861843, -0.029554583261975235, -0.245646448220154, -0.06132649833480114, 0.13640645902642937, -0.22586818098489644], [0.22263683509579069, 0.16858793564058147, -0.23853019022672503, 0.050915862172685185, 0.18523728153742147, 0.18123805107611998], [-0.06893055111927185, 0.02638686582149458, -0.13042238357768657, -0.23341976257216945, -0.024018178026553337, -0.17597405456400336]], 'W43': [[0.21636901008754877, -0.1131019217417019, 0.23354075740817146, 0.24363080698732378, 0.010122526603560294, 0.0705185883431074, -0.0458337939796185, 0.052001200510220974, -0.04480886949276354, -0.0732665888246545, 0.09936771275638212], [-0.24912344588775684, 0.09854577552813289, 0.03729518729442331, 0.07968024716749059, -0.2547190914062758, -0.07181413693489996, 0.05283015125259737, -0.22423881895630135, 0.02269334951412532, 0.03923892472434722, -0.13517757109791803]]}