{'W10': [[-4.494939155801658, 3.810453412175544, -0.4023291229817855, -1.9621162282975688, -0.1376069289194949, 1.011893705521696, -2.0616686336930066, 1.0166144388112537, 3.5233853940560915, -4.53920574152655, -1.0254263154584409], [-3.9886639429962325, 3.468162453725178, -0.35319059178368806, -1.654892761357775, -0.18163728760511408, 0.8750889650299603, -1.8114448962678298, 0.9082811106867995, 3.157711097195706, -4.08069448852717, -0.9116969814170062], [0.7064407088092146, -0.7733915633955342, -0.06353611643156215, 0.27772403878391044, -0.063549565953778, -0.37767167687230746, 0.2539116521950036, -0.3588920859925472, -0.915367607932977, 0.7367627529156103, -0.11031596419634752], [1.7064637531567197, -1.897650226453572, -0.1647613572324537, 0.7161299905546369, -0.24395547765373965, -0.8514769595827972, 0.5387526500194865, -0.8636750602362671, -2.144026304266961, 1.7506883146305448, -0.384106172476013], [2.1425244696726304, -2.4372311672341813, -0.1845804274694677, 0.9463944682747754, -0.29966534936332134, -1.1205072062725145, 0.6679549072074422, -1.1289001948841055, -2.718850255775114, 2.2877713564960476, -0.4357969278014074], [0.7820788852926267, -0.896854109748049, -0.08167481639965192, 0.3728928055429735, -0.06436480078431184, -0.378575004618499, 0.2148286248099394, -0.40447242065773453, -0.9661430184090833, 0.7913565870302091, -0.11302211690934044]], 'W21': [[4.1334094858089285, 3.9277394433463524, -1.190952565137791, -2.3523264589482378, -2.7095577983069035, -1.3081412231054395, -0.10281732426717377], [-4.144395420551116, -3.9938856863530536, 1.1385206937860866, 2.3067930991825722, 2.7135512796510657, 1.2359135836768596, -0.036796738411229026]]}