{'W10': [[-0.09623228131340024, 0.08847289470185384, 0.04444502860124909, -0.09220167028136447, 0.14426994561255405, 0.14477991586687808, -0.32153868711047123, -0.1593247838706127, 0.10558209623570702, 0.10326116227923973, -0.0721432296276274], [0.10644395631806254, 0.20574992458557986, 0.300767555925573, 0.186033547759357, -0.2597211229112501, -0.2755751315270869, 0.10337983189383107, 0.19441475441357248, 0.09180040969138704, 0.0965401642692795, -0.018614001676505457]], 'W21': [[0.031667452678562, 0.04717307091606788, -0.05489567826209449], [-0.17773626682184016, 0.0036621632250793536, 0.09122538962729008]], 'W32': [[-0.4321186873910392, -0.4002228361928156, -0.9946056482828182], [-0.5320281272621515, -0.6401688899420156, -0.8789768754138749], [-0.20876277900239099, -0.3302340909198164, -1.1319688405882378]], 'W43': [[0.006084270965442614, 0.17915639968480426, 0.16626448565524324, 0.4063253346644575], [-0.05854713034834012, -0.1983933018064394, -0.07304012711156796, -0.3959068646061559]]}