{'W10': [[0.003680616813100266, 1.9732320472439924, -4.169337520110018, -1.8022309563522625, 0.3091618321780691], [0.0036806180215441762, 1.9732320796448841, -4.1693375888404764, -1.8022309869273203, 0.3091618379093129], [0.003680616333503861, 1.973232034388681, -4.169337492840301, -1.8022309442210196, 0.3091618299039846], [-2.1058346880358454, -4.65672746178206, 6.7466110932917776, 3.2657786129386532, -1.0519507525445055], [0.003680611252085137, 1.97323189779722, -4.169337203138877, -1.8022308153697613, 0.3091618057603264], [-0.3054346834111219, 0.14379493636754193, -1.0565185237209882, -0.5088419311977013, 0.04674891409829342]], 'W21': [[1.3400323118514874, 1.3400323171254391, 1.3400323097589202, -3.2081196571491053, 1.3400322875259312, 0.15559961649821188, -0.24868710975523717], [-1.0349143551209, -1.034914361942041, -1.034914352414456, 0.9473304893210458, -1.0349143236634704, -0.07746497251294934, -0.9116453108156796], [-0.9624787648503279, -0.9624787716026354, -0.9624787621712145, 1.0435707638724119, -0.9624787337115739, -0.14644036102322033, -1.1496141805577538]]}