{'W10': [[-1.708432101002025, -0.09873670075258235, 1.11326945805654, -0.6572842422272709, 1.0421398429526503, -1.2918840347877523, 0.980226851645968, 0.8836767279124645, 0.2629758017984042], [0.3184508810486349, -1.6734084578205015, -1.3640107855886534, 0.922769036780844, -1.0268898266075657, 1.0091792706823237, 0.9273729701859549, 1.0520801256914234, 0.16554321437253877], [0.7093525448570506, 1.1267970702262196, -0.8927445791805543, -1.3031690342926718, 1.060892052610128, 1.0711720754006326, -1.6493723763077641, 0.11159646749048993, 0.2345242208041571], [1.073392767892248, 0.9216671950086495, 1.0033655753751125, 1.072834358243936, -1.284946721591771, -0.9081815208988475, 0.02047082548266649, -1.7159812011930151, 0.18262127832428177]], 'W21': [[-2.1599246236623277, -0.20141422095603997, 0.18041520437783637, 0.5430914547426242, -0.9766074051624647], [-0.6546169339160564, -2.0743010316349264, 0.5694595073881629, 0.4145000126472772, -0.9593100093947665], [0.5656224669351679, -1.8133754537006457, -1.4198510814294716, 0.5099332051025949, -0.7776269364782993], [-1.198201751697207, 0.43716545837272475, -1.7950435818270598, 0.566760392548969, -0.8039392640658047], [0.5122012606109129, -1.5187931683469602, 0.5392017506589907, -1.753850386216453, -0.7657477200358925], [-1.7946485829638883, 0.5216939495547672, 0.5471850071366172, -1.410098108858935, -0.7564159172212332], [0.42879835037485, 0.42377962165863636, -2.093351711073486, -0.5051629717727237, -0.9408242286194646], [0.33663880934875023, 0.5268178185277641, -0.4334484046443813, -2.117964655494461, -0.986098609484307]]}