{'W10': [[-0.10528572250614188, 1.1613774364246983, -2.2577221337957027, -0.8733305275203372, 0.0863539357025643], [-3.647676729434549, -2.6228101336560807, 4.818762517873822, 4.9957391223991445, -2.628298075724368], [-0.10528572250624246, 1.1613774364265146, -2.257722133798798, -0.8733305275214006, 0.08635393570260864], [-0.10528572250622707, 1.1613774364263212, -2.2577221337985005, -0.8733305275212935, 0.08635393570260518], [-0.10528572250623985, 1.1613774364264797, -2.2577221337987408, -0.8733305275213882, 0.08635393570260846], [-0.10528572250619188, 1.161377436425587, -2.257722133797203, -0.8733305275208446, 0.08635393570258576], [-0.10528572250623663, 1.1613774364264244, -2.2577221337986693, -0.8733305275213571, 0.08635393570260835], [-0.10528572250623977, 1.1613774364264873, -2.2577221337987523, -0.8733305275213915, 0.0863539357026089], [-0.773721182852493, -2.7089910571782108, 3.3035581454629055, 1.1552969751581064, -0.21890186379033708]], 'W21': [[0.9905480387656121, -0.7968639229685767, 0.9905480387662328, 0.9905480387661578, 0.9905480387662209, 0.9905480387659119, 0.9905480387661952, 0.990548038766225, -2.6878081386263295, -0.47214423723417664], [-0.9077315316003713, -3.5790490558873573, -0.9077315316010812, -0.9077315316010037, -0.907731531601069, -0.90773153160072, -0.9077315316010423, -0.9077315316010734, 1.4129388739602575, -0.09652685999228981], [-0.5730059009419864, 3.707511614285303, -0.5730059009423474, -0.5730059009423093, -0.573005900942342, -0.5730059009421624, -0.5730059009423303, -0.5730059009423429, 0.10252276592554549, -1.6680280809364412]]}