{'W10': [[2.1889652283538745, -1.9195569602520635, 2.0881297039401585, -2.6901819852300615, 0.1478778464840203, -2.4021555482997834, 0.5765165388615624, 1.6397700574981349, -0.37039322609250347], [0.6671681223465943, 1.9229900237863022, -2.5237511131901513, -0.870204743499006, -2.3477486758554926, 1.5124529915259777, 1.0354669079271148, 0.8431276095745337, 0.23936781915542177], [-1.9209058174396512, -1.7218058920032133, -0.3393983876205702, 0.41148580620096853, 2.314681289515281, 2.1130070055506676, -2.667167850641377, 1.6094306455533296, -0.20036845390067784], [-1.480324327493697, -0.729536264490499, 1.2132945518418625, 2.500008474690162, -0.37584410838873855, -0.6827975105742832, 2.3808478272037243, -2.759156052819592, 0.06691868640669953]], 'W21': [[1.5826516541724662, 0.01953768899468237, -2.2628360655947315, -2.0367710095885525, -0.9600655531888279], [-2.210920109782845, 1.191956826944905, -2.083676687600254, -1.1888736901838013, -0.43770173004317825], [1.4217570845758445, -2.870535217606261, -1.0868879997202554, 0.6823048104859116, -1.1721949074594282], [-2.599906993937973, -1.5519118952314745, -0.17275855437600438, 1.6903152702836874, -1.0113200982192714], [-0.47365731067373923, -2.7472345828001954, 1.665050229782839, -1.009704501555601, -0.8258911215290025], [-2.457513273460867, 0.6973564808269092, 1.4250180492132978, -1.356501708884382, -1.5017478812634082], [-0.10345872501160204, 0.2881486569921457, -2.5808996105308233, 1.4928658136500432, -1.8051000100265666], [0.9394879746152652, 0.06346259117870973, 0.9834278603919558, -2.840674229901345, -1.6962870936077732]]}