{'W10': [[-1.0169199258780395, 0.7712141349658895, -0.04004263716240514, 0.055506483072806194, -0.46495350858291645, 0.08975769605026594, -0.3505289156030173, 0.03965591819342813, 0.8808434877549652, -1.0592335260459749, -0.39041177210435324], [-0.995981741693732, 0.8890268609132445, -0.19628262896845683, 0.0887342297308925, -0.38387662119173493, -0.062292218339361674, -0.29613709526467935, 0.20032684918056823, 0.6289900012140857, -1.019648364195725, -0.20414847341869083], [-4.871956760317478, 4.415765671138622, -0.549375180832076, 0.16280127345205267, -1.7565004796913106, 0.21567652411782826, -1.964552990294603, 0.720512430011328, 4.076409043175872, -5.062139729540212, -1.1721990567752878], [-4.302377412591836, 3.762331428564041, -0.555865716011589, 0.06063534774050634, -1.3034257013146677, 0.18295591200523767, -1.6914165201845746, 0.6752833273728415, 3.4336595805193473, -4.242690908941049, -1.0968619149167513], [-4.859568548027502, 4.315968317336944, -0.6024304184698751, 0.161487851380938, -1.6486143010714853, 0.1332725749914733, -1.9419925585714635, 0.8058516743008021, 3.975616014675425, -5.143903452599254, -1.1131848742906774], [0.010437047837961228, -0.06327149514347005, -0.13553842547921452, 0.1276054564599162, 0.03814591654876392, -0.04829039791450404, -0.1266320228010383, 0.026739968545431942, 0.03999868400782298, 0.08055896879412373, -0.1439921451556407], [2.6604733248577026, -3.0149704890695106, -0.232825147341678, 0.10995765367232209, 0.42602146031661026, -0.9909064538817202, 0.7819057203412153, -0.9933077863735502, -3.336810131633511, 2.864969481557832, -0.31205523544804353]], 'W21': [[1.1416026080689263, 1.1924928838566349, 3.3049086270909958, 3.1820555263873773, 3.122155059612186, -0.23709589480364357, -4.009153783338619, -0.432596469257109], [-1.2931074505518791, -1.1174550219431154, -3.2727287849081055, -3.1831387285166413, -3.193421894103072, -0.027013123902276816, 4.002602733011527, 0.3716948236929493]]}