{'W10': [[-0.13440786259964305, 0.20387034323690928, 0.022424874917192052, 0.027468005571338213, 0.07096559734565597, -0.08419815095151005, -0.18662988394219276, 0.09537455392887481, 0.285987771319027, 0.02082610810413323, -0.07214567005432114], [-0.2001941524780617, -0.30415847880860275, -0.314210071211537, -0.05407026823329513, -0.28429978118202454, 0.16686394578856167, -0.1403546425318429, 0.13475640794582452, 0.07118624402161867, 0.2601340065058532, -0.23653475837238624], [0.18710724031973863, 0.13683572682776424, 0.039214607014666385, 0.28049854060712753, -0.22967819188272873, -0.05505121448128181, -0.30519506697369736, 0.08127375059979661, 0.2978243216151193, -0.07958065857827056, 0.1706670182159976], [-0.2288664648432925, 0.029780922304246484, 0.27121327553611363, -0.2256527892754935, -0.3073434855879261, -0.24803587138053992, 0.28636952061820603, 0.055424282720416586, -0.28765868733257344, 0.28944647030320425, 0.24494592197771708], [-0.11282749293795757, 0.15745839769275224, -0.011042746287869507, 0.16364517678121515, 0.232433738572446, 0.03029987966579598, -0.27012395382541216, 0.032460540044997516, -0.3005026849991489, 0.06020901642655889, 0.23158452993805134], [-0.2671391244777116, 0.05190421756537346, -0.04461210317931147, 0.25799922946756176, -0.30041758580696404, 0.13771386305803518, 0.27204496566849157, 0.242947666277363, 0.27416437925010106, -0.08114125434785321, -0.14346315563974277], [-0.06513090373803693, -0.2128602419041267, 0.06049529948114509, -0.17057870084920618, 0.1954909873798261, 0.2512724374523885, -0.10430244148486124, 0.050611192363677386, 0.15651612215533425, 0.2581472876282947, -0.08672610140788575], [0.3071616277591115, -0.05645394806464812, 0.288975975967412, 0.07582694034550239, 0.020893858755970565, 0.10620929651471492, 0.2694277905462454, -0.0182759941627305, -0.1375360864044451, 0.29384236841621103, 0.019803192268559176], [0.20104946457011078, 0.3102807157685185, -0.2732379162674551, -0.19083404969219006, 0.10597151803900233, -0.2303490518733695, 0.20410319107115427, -0.28936610001961355, -0.2993975224234857, 0.18218085493410918, -0.030092510060976047]], 'W21': [[-0.1309705580258652, 0.06547536892561767, 0.23169310068237353, -0.1443686732054388, -0.06389397094325486, 0.17713301113006102, 0.1781072318743921, -0.23322588630880078, -0.15256490828531413, 0.20057847684779825], [-0.22467675797704148, 0.06977261833748853, 0.2929773801060731, 0.10742990838630467, 0.08403745012349038, 0.036703150316785234, 0.08872850150488927, 0.16772440408496797, -0.01706968931581557, -0.2384714617011033], [0.31595203230296975, 0.04179468940427143, 0.20667192693392245, 0.29887581186878653, -0.24608275321270234, -0.22160796802674934, 0.01793667336941071, 0.27285818816083807, 0.09038907766898943, -0.3040134668087438], [-0.01306605322506092, -0.21666023148768482, -0.16299199645129037, 0.04538580970570875, -0.13645451865635672, -0.2764974051445244, 0.13348830976333032, -0.26378789844526757, -0.12819152717449278, 0.12479680566839975], [0.2629302041753791, 0.22542557719974982, -0.2142607988071892, 0.19740919873871587, -0.2855778402487488, 0.02257415915044713, -0.10277221562793297, 0.04843136923067707, -0.16978097292484765, -0.03552814204030536], [-0.1504759372962399, -0.06390037779993744, -0.09243321531002614, -0.05628411347481656, -0.2867129015289006, -0.265135125691705, 0.0016873640294112003, -0.14347218067297487, 0.05321828769501357, 0.2855520495156224], [-0.19725851645744957, 0.1768230184363996, 0.30631962309968574, 0.09535917338059696, 0.050334342336249324, 0.00626307735062709, 0.22311044145077916, -0.20699870183532296, -0.018692430880175203, -0.03444537052384384], [-0.19554755513321448, 0.1475958446829721, 0.19937249654165132, -0.14036073396999976, 0.23731736449179544, 0.04039884225874284, -0.2257214861185409, -0.08987428988775897, 0.1739466234145568, -0.16910929858563234], [-0.25623396961886213, 0.18915145220828858, -0.1776619978976252, 0.18767977917653297, 0.04728255936288116, -0.09783470858551965, 0.15362828261332673, 0.05598219275458289, 0.1526495314316077, 0.23837081690907402]], 'W32': [[0.10067124662028308, -0.20845244876372057, 0.13614684955914114, 0.011061576285748368, -0.11198556344513026, -0.3006812792386004, 0.25355585819841486, 0.17212094966998592, -0.17461060150038724, 0.03755698682728528], [0.154579982466198, -0.07162785582031612, -0.029466740231013516, 0.0828950543263478, -0.12792459646593865, -0.15327531951933362, 0.14630673246027875, -0.22384508134268633, -0.02983006446296572, 0.31775537899795137], [-0.09149859298691487, -0.13225805419748587, 0.12271818950680387, 0.24988610659068952, 0.10750323422496624, -0.1478769495421424, -0.0906705269160605, -0.1521818783706167, 0.11207492896495355, 0.2009663092562223], [-0.024884044609306797, 0.1465978747072328, -0.27288111562725037, 0.09885505270723952, -0.1961345362401452, -0.13052992844218256, 0.1525306132592647, 0.0035253295952138337, -0.11295394453486092, -0.2642609731276012]], 'W43': [[0.32507448402717903, -0.2167673814292651, -0.016928190495791754, -0.11335933911920769, 0.31676679541334585], [0.2941442095330715, 0.37177067707106964, 0.09300126443136933, 0.24646215959733042, 0.4037824958480457], [-0.20651388651849306, -0.19312739750949395, 0.08561046482722462, -0.07836128964188634, -0.3233155804983686], [0.0009189343310816696, 0.23778664718167247, 0.13583386831835395, 0.03639816465456358, 0.4055427751004936], [0.1475634717149545, -0.08389087904918209, -0.07866061198340275, -0.07858520694473556, 0.2642170455511482], [0.32271641490869174, 0.17179902885880405, -0.1801922125405924, 0.033229470378503205, 0.25106657255344017], [-0.21745091688666535, -0.03646860154583733, 0.2784522183659289, 0.251892743569072, 0.13176750950700727], [-0.016616200216823217, -0.08686058004893979, 0.31229745386415847, 0.23060537615127946, 0.203107382417515], [-0.07673288377648846, 0.1612668018194206, 0.07988153373216125, 0.3387829512111433, 0.26709175971344473], [0.2314073119947238, 0.23320512466590154, 0.0003830119092315367, 0.018589194147143037, -0.12409138367654687]], 'W54': [[-0.46809361088474943, -0.9199417051309784, -0.2012691442213835, -0.8009457473313586, -0.7804822055141787, -0.5844477689973646, -0.8373773112260702, -0.3446549667699738, -0.6019512397743972, -0.32792590924234083, -0.824982097808319], [-0.607623217458842, -0.924745560481248, -0.1253335382313613, -0.48759336008071247, -0.715842263724231, -0.8045799833342929, -0.21722322848839928, -0.5081844427159002, -0.3328889010047132, -0.3031633175524353, -1.2945169079717926]], 'W65': [[0.019931789221022365, -0.08333531700769035, 0.3905334804147425], [0.01786972518830038, -0.07407616267469005, -0.37116467019619415]]}