{'W10': [[-0.8398483437444009, 0.4330330284935954, -1.5445509675932114, -0.9075372779299882, -0.4118374320561071], [1.3908019374868947, 0.025981932034545702, 3.8356860914005027, 1.5528708419613648, -0.2385168970724127]], 'W21': [[0.14530791983655303, 0.36389239030103193, 0.20074587863816595], [-0.28562176571273573, 0.06177756517241206, -0.33372648744107897], [0.10740770063538237, 0.1454703113473302, 0.18373515081399033], [-0.25658828348131885, 0.41596833957967827, 0.013016122773410167], [-0.022245629066884248, 0.3367717396722131, 0.4645562790177571], [-0.4389765396003083, 0.566829360472201, -0.29635918922875704], [0.411946265684464, 0.2607820021015591, 0.5101990159826165]], 'W32': [[0.23884873185338193, 0.06411843472821156, 0.4170271832670408, 0.5008592808179244, 0.4006611639029262, 0.44946098819956837, -0.22759468357779827, 0.8201915514830093], [-0.3894582870804793, 0.2980581124537023, 0.0308994643869299, 0.38804726586888233, -0.03686122533728212, -0.3191744729933726, -0.12148638463867063, 0.3914231861818676], [0.4434359166706908, 0.5869614518786854, -0.07022009369758427, 0.5459366011928387, 0.2972587757038525, 0.6359136052254976, 0.30173106037882036, 0.48539061084051915], [0.44853923281214414, -0.36931839215149737, -0.08295720916011579, 0.5066139206683069, 0.2338260176324139, 0.4114236495241106, 0.21367796333270594, 0.04818602830413877], [0.3723834718693516, 0.10269150284574405, -0.21189806415654736, -0.11548118043461167, 0.30025182528042504, 0.26098271828744035, 0.00358928541846432, 0.2561370094649758], [-0.25718452524908664, -0.3469585884956999, 0.030554441557121583, 0.1944960359813178, -0.11355147686171774, -0.13496254754783887, 0.3185912146033748, -0.5041390049274934], [0.6484222473384212, 0.07404042436196606, 0.49343552159375176, -0.16286108525228787, 0.2544913841292248, 0.5481946628300871, 0.37122588936310297, 0.7526623150003442], [0.27840239514987325, 0.5453399287842631, -0.10847447013294935, 0.47859105962563975, 0.07427397072676217, 0.3597517087185294, 0.23732984817936129, 0.45024603195184215], [-0.2733529797441723, 0.296361751375579, 0.10099126354790923, 0.037694731692903265, 0.49967991076445384, 0.49941043156694703, 0.6548827352596251, 0.6511241646909803]], 'W43': [[-1.2438063082734554, -0.13560871317493148, -0.8104261463544478, -0.9427928746260057, -1.0366398345148309, -0.521646313963942, -1.031339703733438, -0.5608395383390419, -1.124615539931619, -0.8171996983604034], [-0.9577380864430903, -0.840686289193787, -0.792506436005302, -0.8741179702635817, -0.7866370435132588, 0.17963898540619044, -0.9919305963256597, -0.7443157948418597, -0.7228587234200725, -1.350377805898574], [-0.8368203326895007, -0.5604090451012657, -0.9589847771714153, -0.17609684256431324, -0.8471395489183902, -0.09105440462463407, -0.8138476979766557, -0.9798731995123637, -1.1319792280163101, -1.455082615661008]], 'W54': [[0.09238316344282255, -0.07525355087944137, -0.008225001771740875, -0.7121930650772096], [0.07516689741162765, -0.14502508494106686, 0.004874165195480787, -0.4925494595247335], [0.06998072818260305, -0.16439937716046935, 0.004071896086857007, -0.8848701948641091]]}