{'W10': [[-0.03216430208842273, 0.04319973430880626, 0.011490406197086217, 0.021029508001594366, -0.010604138615644666, 0.012662300012289527, -0.010417802161135853, 0.033377570872430116, 0.05510712530580426, -0.03237209179160927, 0.02341394603948896], [-0.034571717799623106, 0.04601376434319702, 0.012688067703439507, 0.022978556080796284, -0.011328301171001571, 0.013505486547556839, -0.010357467742422443, 0.0361276313815916, 0.05951072769611889, -0.03416679823696343, 0.024897848260029234], [-0.03152907575120156, 0.044427596207993074, 0.011231028413339056, 0.021496360934789484, -0.00952868719467686, 0.012102259288246835, -0.009368363661362952, 0.03304491851216787, 0.055207534763916, -0.031055931391947733, 0.023223649768237094], [-0.03149357974740572, 0.04279900034070817, 0.011764694238735229, 0.020619174903029516, -0.009422224758587606, 0.011155909745077713, -0.009567206824879486, 0.0323718261661377, 0.05336963433753812, -0.030319699114850194, 0.02268127200967043], [-0.03232391570198435, 0.04395222457940091, 0.012281108900949696, 0.022129829864290986, -0.010316994203926661, 0.011373088901160842, -0.010772875403940972, 0.03436278035843824, 0.056143391575436824, -0.0325940013672425, 0.024622105298685613], [-0.030685068747348745, 0.04314671288667241, 0.01110823461549355, 0.022204087759588136, -0.010227540523140113, 0.011797720428589403, -0.00999064855030611, 0.03354262934254479, 0.05441896356202103, -0.03212840960970037, 0.023545266088661518]], 'W21': [[0.17891726224154478, 0.18352356387241034, 0.17919247298369914, 0.17696424164654062, 0.17978801613310755, 0.17827518732518904, 0.3076846319798688], [-0.18345210865175396, -0.18926097650660753, -0.18273580661061975, -0.18109833948824036, -0.1853488253186, -0.18277508206420073, -0.3112770115294911]]}