{'W10': [[0.03588414443501931, 1.273207000301565, -2.441507118223411, -0.8081622478715987, 0.11627066285236824], [0.41625085960476577, 0.2946138010927957, -0.0592722554762413, -0.18292378844858978, -0.033500854999199844], [-0.8023839527778194, -2.0452241592794436, 2.6307915446502017, 1.167204025573991, -0.5030070605016305], [-2.4857186007896925, -2.585342347940567, 3.686491131183695, 2.790666279760419, -1.3381990940030888], [-0.21564009421370617, 0.638234009356774, -0.8481919987688988, -0.413018420617642, 0.14949486531618988], [-0.3849649485267568, 0.2215252479778739, -1.0181097022404408, -0.48431279790931536, 0.2286120530725021], [0.05955261959217776, 1.2347619030140353, -2.6587055528089594, -1.356210932556557, 0.15388320218381996], [-0.7449850144549205, -0.8012303973272838, 1.2743258495376162, 0.9351246029593461, -0.4421316157525404], [-0.17949316138280128, -0.7971149939120066, 0.9731854602158957, 0.5093473197829962, -0.14444436168191074], [0.10222159544662826, 1.3750881935227288, -3.1045978866386856, -1.1738588289502783, 0.19354819073170576]], 'W21': [[1.4869350720582517, -0.16832131128802955, -2.0542262082599536, -1.0772689676342482, 0.6888936342007496, 0.28984308931195846, 1.2162822404804485, -0.748180086363469, -1.1509182982343387, 1.3102400397793954, 0.14296825264557622], [-1.4923990782160081, -0.0969298835614868, 0.7004890397061699, -2.705697481193383, -0.564836885316478, -0.015152953723493555, -1.0376771938404172, -0.6337524118092209, 0.5429048793552967, -1.1383845597993276, -0.0918967578190282], [-0.680820929943154, -0.8825141649192849, 0.6977192544961524, 2.9311540293071014, -0.22255924357199752, -0.0998604373892758, -0.7253611227721548, 1.204063225473484, 0.19171201257603485, -0.8867381125452182, -1.5253401229721013]]}