{'W10': [[0.2784542902806337, -0.020442902155450374, 0.07291917142308375, 0.03738955433784549, -0.23197567512341302, -0.2527290708801336, 0.21045436440178644, 0.24605716168355168, -0.08924412920600042, 0.24079439024321786, 0.1586480034499191], [0.07184165284907337, 0.21245079669967118, -0.16175283975043114, -0.15428202936953014, 0.08908434297702514, -0.1022844923840145, 0.06872646855835925, -0.18491046911742304, 0.17338693669518007, 0.09050312831744492, -0.21932726585017118]], 'W21': [[0.043195075622820815, -0.05305861343272432, 0.5123726513618753], [-0.15665016586360275, 0.30741601229521676, 0.4269441151210874], [-0.14210042543571963, -0.06157493661655127, -0.04588376738407053]], 'W32': [[-0.8000009168733874, -0.5556546527323398, -0.44599827980566004, -1.3735592072653855], [-0.8305526654502904, -0.9175840883722747, -0.4300044561988341, -1.2885464610630013], [-0.6041400125726846, -0.5347051578243237, -0.6955254600473461, -1.4624349579609133]], 'W43': [[0.06040300847543658, -0.15910020411272272, -0.042535277839490654, 0.39236407160105496], [0.03915429970419552, -0.11107639049454707, 0.027621788564740204, -0.3631435029325843]]}